digraph Tree {
node [shape=box] ;
0 [label="X[4] <= 1.0\ngini = 0.5\nsamples = 378174\nvalue = [189087, 189087]"] ;
1 [label="X[0] <= 41.8\ngini = 0.268\nsamples = 218684\nvalue = [34805, 183879]"] ;
0 -> 1 [labeldistance=2.5, labelangle=45, headlabel="True"] ;
2 [label="X[2] <= 1.5\ngini = 0.491\nsamples = 17355\nvalue = [7518, 9837]"] ;
1 -> 2 ;
3 [label="X[4] <= 0.0\ngini = 0.447\nsamples = 14836\nvalue = [4999, 9837]"] ;
2 -> 3 ;
4 [label="gini = 0.484\nsamples = 12208\nvalue = [4999, 7209]"] ;
3 -> 4 ;
5 [label="gini = 0.0\nsamples = 2628\nvalue = [0, 2628]"] ;
3 -> 5 ;
6 [label="gini = 0.0\nsamples = 2519\nvalue = [2519, 0]"] ;
2 -> 6 ;
7 [label="X[0] <= 161.574\ngini = 0.234\nsamples = 201329\nvalue = [27287, 174042]"] ;
1 -> 7 ;
8 [label="X[4] <= 0.0\ngini = 0.297\nsamples = 134763\nvalue = [24443, 110320]"] ;
7 -> 8 ;
9 [label="gini = 0.328\nsamples = 118228\nvalue = [24443, 93785]"] ;
8 -> 9 ;
10 [label="gini = 0.0\nsamples = 16535\nvalue = [0, 16535]"] ;
8 -> 10 ;
11 [label="X[3] <= 0.0\ngini = 0.082\nsamples = 66566\nvalue = [2844, 63722]"] ;
7 -> 11 ;
12 [label="gini = 0.0\nsamples = 151\nvalue = [151, 0]"] ;
11 -> 12 ;
13 [label="gini = 0.078\nsamples = 66415\nvalue = [2693, 63722]"] ;
11 -> 13 ;
14 [label="X[0] <= 398.849\ngini = 0.063\nsamples = 159490\nvalue = [154282, 5208]"] ;
0 -> 14 [labeldistance=2.5, labelangle=-45, headlabel="False"] ;
15 [label="X[0] <= 122.728\ngini = 0.022\nsamples = 155057\nvalue = [153356, 1701]"] ;
14 -> 15 ;
16 [label="X[2] <= 2.5\ngini = 0.005\nsamples = 129052\nvalue = [128756, 296]"] ;
15 -> 16 ;
17 [label="gini = 0.0\nsamples = 123713\nvalue = [123704, 9]"] ;
16 -> 17 ;
18 [label="gini = 0.102\nsamples = 5339\nvalue = [5052, 287]"] ;
16 -> 18 ;
19 [label="X[1] <= -52.09\ngini = 0.102\nsamples = 26005\nvalue = [24600, 1405]"] ;
15 -> 19 ;
20 [label="gini = 0.488\nsamples = 658\nvalue = [379, 279]"] ;
19 -> 20 ;
21 [label="gini = 0.085\nsamples = 25347\nvalue = [24221, 1126]"] ;
19 -> 21 ;
22 [label="X[2] <= 1.5\ngini = 0.331\nsamples = 4433\nvalue = [926, 3507]"] ;
14 -> 22 ;
23 [label="X[0] <= 808.142\ngini = 0.208\nsamples = 3975\nvalue = [468, 3507]"] ;
22 -> 23 ;
24 [label="gini = 0.176\nsamples = 3886\nvalue = [379, 3507]"] ;
23 -> 24 ;
25 [label="gini = 0.0\nsamples = 89\nvalue = [89, 0]"] ;
23 -> 25 ;
26 [label="gini = 0.0\nsamples = 458\nvalue = [458, 0]"] ;
22 -> 26 ;
}