digraph Tree {
node [shape=box] ;
0 [label="X[4] <= 1.0\ngini = 0.5\nsamples = 378138\nvalue = [189069, 189069]"] ;
1 [label="X[0] <= 140.349\ngini = 0.266\nsamples = 220990\nvalue = [34860, 186130]"] ;
0 -> 1 [labeldistance=2.5, labelangle=45, headlabel="True"] ;
2 [label="X[0] <= 31.339\ngini = 0.344\nsamples = 138599\nvalue = [30573, 108026]"] ;
1 -> 2 ;
3 [label="X[4] <= 0.0\ngini = 0.496\nsamples = 8349\nvalue = [4565, 3784]"] ;
2 -> 3 ;
4 [label="gini = 0.459\nsamples = 7101\nvalue = [4565, 2536]"] ;
3 -> 4 ;
5 [label="gini = 0.0\nsamples = 1248\nvalue = [0, 1248]"] ;
3 -> 5 ;
6 [label="X[4] <= 0.0\ngini = 0.32\nsamples = 130250\nvalue = [26008, 104242]"] ;
2 -> 6 ;
7 [label="gini = 0.345\nsamples = 117367\nvalue = [26008, 91359]"] ;
6 -> 7 ;
8 [label="gini = 0.0\nsamples = 12883\nvalue = [0, 12883]"] ;
6 -> 8 ;
9 [label="X[3] <= 0.0\ngini = 0.099\nsamples = 82391\nvalue = [4287, 78104]"] ;
1 -> 9 ;
10 [label="gini = 0.0\nsamples = 222\nvalue = [222, 0]"] ;
9 -> 10 ;
11 [label="X[0] <= 228.464\ngini = 0.094\nsamples = 82169\nvalue = [4065, 78104]"] ;
9 -> 11 ;
12 [label="gini = 0.177\nsamples = 32428\nvalue = [3179, 29249]"] ;
11 -> 12 ;
13 [label="gini = 0.035\nsamples = 49741\nvalue = [886, 48855]"] ;
11 -> 13 ;
14 [label="X[0] <= 398.849\ngini = 0.037\nsamples = 157148\nvalue = [154209, 2939]"] ;
0 -> 14 [labeldistance=2.5, labelangle=-45, headlabel="False"] ;
15 [label="X[1] <= -15.74\ngini = 0.012\nsamples = 154201\nvalue = [153277, 924]"] ;
14 -> 15 ;
16 [label="X[1] <= -15.749\ngini = 0.129\nsamples = 7069\nvalue = [6580, 489]"] ;
15 -> 16 ;
17 [label="gini = 0.067\nsamples = 6808\nvalue = [6571, 237]"] ;
16 -> 17 ;
18 [label="gini = 0.067\nsamples = 261\nvalue = [9, 252]"] ;
16 -> 18 ;
19 [label="X[0] <= 115.434\ngini = 0.006\nsamples = 147132\nvalue = [146697, 435]"] ;
15 -> 19 ;
20 [label="gini = 0.0\nsamples = 118806\nvalue = [118799, 7]"] ;
19 -> 20 ;
21 [label="gini = 0.03\nsamples = 28326\nvalue = [27898, 428]"] ;
19 -> 21 ;
22 [label="X[3] <= 1.0\ngini = 0.432\nsamples = 2947\nvalue = [932, 2015]"] ;
14 -> 22 ;
23 [label="X[1] <= 6.945\ngini = 0.091\nsamples = 1578\nvalue = [75, 1503]"] ;
22 -> 23 ;
24 [label="gini = 0.055\nsamples = 1547\nvalue = [44, 1503]"] ;
23 -> 24 ;
25 [label="gini = 0.0\nsamples = 31\nvalue = [31, 0]"] ;
23 -> 25 ;
26 [label="X[2] <= 1.5\ngini = 0.468\nsamples = 1369\nvalue = [857, 512]"] ;
22 -> 26 ;
27 [label="gini = 0.497\nsamples = 948\nvalue = [436, 512]"] ;
26 -> 27 ;
28 [label="gini = 0.0\nsamples = 421\nvalue = [421, 0]"] ;
26 -> 28 ;
}